digraph Tree {
node [shape=box] ;
0 [label="Zhvi <= 271650.0\ngini = 0.86\nsamples = 15589\nvalue = [3144, 3515, 1735, 320, 1017, 1531, 1152, 1664, 1042\n469]"] ;
1 [label="Estimate; INCOME AND BENEFITS (IN 2017 INFLATION-ADJUSTED DOLLARS) - Total households - Median household income (dollars) <= 62556.0\ngini = 0.839\nsamples = 10546\nvalue = [411, 2970, 1361, 0, 199, 1296, 1152, 1646, 1042, 469]"] ;
0 -> 1 [labeldistance=2.5, labelangle=45, headlabel="True"] ;
2 [label="Zhvi <= 150950.0\ngini = 0.804\nsamples = 7883\nvalue = [411, 2641, 17, 0, 0, 1296, 1131, 876, 1042, 469]"] ;
1 -> 2 ;
3 [label="Estimate; INCOME AND BENEFITS (IN 2017 INFLATION-ADJUSTED DOLLARS) - Total households - Median household income (dollars) <= 48279.5\ngini = 0.81\nsamples = 4618\nvalue = [0, 483, 0, 0, 0, 1209, 554, 876, 1040, 456]"] ;
2 -> 3 ;
4 [label="Estimate; INCOME AND BENEFITS (IN 2017 INFLATION-ADJUSTED DOLLARS) - Total households - Median household income (dollars) <= 41341.5\ngini = 0.724\nsamples = 2830\nvalue = [0, 478, 0, 0, 0, 24, 0, 832, 1040, 456]"] ;
3 -> 4 ;
5 [label="Estimate; INCOME AND BENEFITS (IN 2017 INFLATION-ADJUSTED DOLLARS) - Total households - Median household income (dollars) <= 33779.0\ngini = 0.47\nsamples = 1547\nvalue = [0, 56, 0, 0, 0, 0, 0, 7, 1028, 456]"] ;
4 -> 5 ;
6 [label="gini = 0.035\nsamples = 450\nvalue = [0, 4, 0, 0, 0, 0, 0, 0, 4, 442]"] ;
5 -> 6 ;
7 [label="Zhvi <= 134350.0\ngini = 0.126\nsamples = 1097\nvalue = [0, 52, 0, 0, 0, 0, 0, 7, 1024, 14]"] ;
5 -> 7 ;
8 [label="gini = 0.051\nsamples = 964\nvalue = [0, 4, 0, 0, 0, 0, 0, 7, 939, 14]"] ;
7 -> 8 ;
9 [label="gini = 0.461\nsamples = 133\nvalue = [0, 48, 0, 0, 0, 0, 0, 0, 85, 0]"] ;
7 -> 9 ;
10 [label="Zhvi <= 121950.0\ngini = 0.478\nsamples = 1283\nvalue = [0, 422, 0, 0, 0, 24, 0, 825, 12, 0]"] ;
4 -> 10 ;
11 [label="gini = 0.067\nsamples = 850\nvalue = [0, 7, 0, 0, 0, 11, 0, 821, 11, 0]"] ;
10 -> 11 ;
12 [label="gini = 0.08\nsamples = 433\nvalue = [0, 415, 0, 0, 0, 13, 0, 4, 1, 0]"] ;
10 -> 12 ;
13 [label="Estimate; INCOME AND BENEFITS (IN 2017 INFLATION-ADJUSTED DOLLARS) - Total households - Median household income (dollars) <= 55357.5\ngini = 0.464\nsamples = 1788\nvalue = [0, 5, 0, 0, 0, 1185, 554, 44, 0, 0]"] ;
3 -> 13 ;
14 [label="Estimate; INCOME AND BENEFITS (IN 2017 INFLATION-ADJUSTED DOLLARS) - Total households - Median household income (dollars) <= 55035.0\ngini = 0.114\nsamples = 1210\nvalue = [0, 5, 0, 0, 0, 1138, 23, 44, 0, 0]"] ;
13 -> 14 ;
15 [label="Zhvi <= 71500.0\ngini = 0.086\nsamples = 1164\nvalue = [0, 5, 0, 0, 0, 1112, 3, 44, 0, 0]"] ;
14 -> 15 ;
16 [label="gini = 0.488\nsamples = 52\nvalue = [0, 0, 0, 0, 0, 30, 0, 22, 0, 0]"] ;
15 -> 16 ;
17 [label="Estimate; INCOME AND BENEFITS (IN 2017 INFLATION-ADJUSTED DOLLARS) - Total households - Median household income (dollars) <= 49008.5\ngini = 0.053\nsamples = 1112\nvalue = [0, 5, 0, 0, 0, 1082, 3, 22, 0, 0]"] ;
15 -> 17 ;
18 [label="gini = 0.333\nsamples = 125\nvalue = [0, 5, 0, 0, 0, 100, 0, 20, 0, 0]"] ;
17 -> 18 ;
19 [label="gini = 0.01\nsamples = 987\nvalue = [0, 0, 0, 0, 0, 982, 3, 2, 0, 0]"] ;
17 -> 19 ;
20 [label="gini = 0.491\nsamples = 46\nvalue = [0, 0, 0, 0, 0, 26, 20, 0, 0, 0]"] ;
14 -> 20 ;
21 [label="gini = 0.149\nsamples = 578\nvalue = [0, 0, 0, 0, 0, 47, 531, 0, 0, 0]"] ;
13 -> 21 ;
22 [label="Estimate; INCOME AND BENEFITS (IN 2017 INFLATION-ADJUSTED DOLLARS) - Total households - Median household income (dollars) <= 55362.5\ngini = 0.515\nsamples = 3265\nvalue = [411, 2158, 17, 0, 0, 87, 577, 0, 2, 13]"] ;
2 -> 22 ;
23 [label="Zhvi <= 205550.0\ngini = 0.385\nsamples = 2177\nvalue = [396, 1658, 0, 0, 0, 87, 21, 0, 2, 13]"] ;
22 -> 23 ;
24 [label="Zhvi <= 158250.0\ngini = 0.178\nsamples = 1434\nvalue = [14, 1297, 0, 0, 0, 87, 21, 0, 2, 13]"] ;
23 -> 24 ;
25 [label="gini = 0.511\nsamples = 253\nvalue = [0, 156, 0, 0, 0, 83, 8, 0, 2, 4]"] ;
24 -> 25 ;
26 [label="Estimate; INCOME AND BENEFITS (IN 2017 INFLATION-ADJUSTED DOLLARS) - Total households - Median household income (dollars) <= 27739.5\ngini = 0.066\nsamples = 1181\nvalue = [14, 1141, 0, 0, 0, 4, 13, 0, 0, 9]"] ;
24 -> 26 ;
27 [label="gini = 0.459\nsamples = 14\nvalue = [0, 5, 0, 0, 0, 0, 0, 0, 0, 9]"] ;
26 -> 27 ;
28 [label="Estimate; INCOME AND BENEFITS (IN 2017 INFLATION-ADJUSTED DOLLARS) - Total households - Median household income (dollars) <= 55013.0\ngini = 0.052\nsamples = 1167\nvalue = [14, 1136, 0, 0, 0, 4, 13, 0, 0, 0]"] ;
26 -> 28 ;
29 [label="Zhvi <= 202450.0\ngini = 0.035\nsamples = 1129\nvalue = [14, 1109, 0, 0, 0, 4, 2, 0, 0, 0]"] ;
28 -> 29 ;
30 [label="Zhvi <= 159850.0\ngini = 0.015\nsamples = 1082\nvalue = [2, 1074, 0, 0, 0, 4, 2, 0, 0, 0]"] ;
29 -> 30 ;
31 [label="gini = 0.187\nsamples = 59\nvalue = [0, 53, 0, 0, 0, 4, 2, 0, 0, 0]"] ;
30 -> 31 ;
32 [label="Zhvi <= 201850.0\ngini = 0.004\nsamples = 1023\nvalue = [2, 1021, 0, 0, 0, 0, 0, 0, 0, 0]"] ;
30 -> 32 ;
33 [label="gini = 0.0\nsamples = 1006\nvalue = [0, 1006, 0, 0, 0, 0, 0, 0, 0, 0]"] ;
32 -> 33 ;
34 [label="gini = 0.208\nsamples = 17\nvalue = [2, 15, 0, 0, 0, 0, 0, 0, 0, 0]"] ;
32 -> 34 ;
35 [label="gini = 0.38\nsamples = 47\nvalue = [12, 35, 0, 0, 0, 0, 0, 0, 0, 0]"] ;
29 -> 35 ;
36 [label="gini = 0.411\nsamples = 38\nvalue = [0, 27, 0, 0, 0, 0, 11, 0, 0, 0]"] ;
28 -> 36 ;
37 [label="gini = 0.5\nsamples = 743\nvalue = [382, 361, 0, 0, 0, 0, 0, 0, 0, 0]"] ;
23 -> 37 ;
38 [label="Zhvi <= 190550.0\ngini = 0.527\nsamples = 1088\nvalue = [15, 500, 17, 0, 0, 0, 556, 0, 0, 0]"] ;
22 -> 38 ;
39 [label="gini = 0.162\nsamples = 566\nvalue = [0, 32, 17, 0, 0, 0, 517, 0, 0, 0]"] ;
38 -> 39 ;
40 [label="gini = 0.19\nsamples = 522\nvalue = [15, 468, 0, 0, 0, 0, 39, 0, 0, 0]"] ;
38 -> 40 ;
41 [label="Estimate; INCOME AND BENEFITS (IN 2017 INFLATION-ADJUSTED DOLLARS) - Total households - Median household income (dollars) <= 68088.0\ngini = 0.641\nsamples = 2663\nvalue = [0, 329, 1344, 0, 199, 0, 21, 770, 0, 0]"] ;
1 -> 41 ;
42 [label="gini = 0.495\nsamples = 920\nvalue = [0, 320, 570, 0, 0, 0, 21, 9, 0, 0]"] ;
41 -> 42 ;
43 [label="Estimate; INCOME AND BENEFITS (IN 2017 INFLATION-ADJUSTED DOLLARS) - Total households - Median household income (dollars) <= 76732.5\ngini = 0.599\nsamples = 1743\nvalue = [0, 9, 774, 0, 199, 0, 0, 761, 0, 0]"] ;
41 -> 43 ;
44 [label="gini = 0.319\nsamples = 921\nvalue = [0, 9, 172, 0, 0, 0, 0, 740, 0, 0]"] ;
43 -> 44 ;
45 [label="gini = 0.404\nsamples = 822\nvalue = [0, 0, 602, 0, 199, 0, 0, 21, 0, 0]"] ;
43 -> 45 ;
46 [label="Estimate; INCOME AND BENEFITS (IN 2017 INFLATION-ADJUSTED DOLLARS) - Total households - Median household income (dollars) <= 72190.0\ngini = 0.657\nsamples = 5043\nvalue = [2733, 545, 374, 320, 818, 235, 0, 18, 0, 0]"] ;
0 -> 46 [labeldistance=2.5, labelangle=-45, headlabel="False"] ;
47 [label="Zhvi <= 293200.0\ngini = 0.133\nsamples = 1857\nvalue = [1725, 123, 0, 0, 0, 0, 0, 9, 0, 0]"] ;
46 -> 47 ;
48 [label="gini = 0.449\nsamples = 313\nvalue = [214, 90, 0, 0, 0, 0, 0, 9, 0, 0]"] ;
47 -> 48 ;
49 [label="Estimate; INCOME AND BENEFITS (IN 2017 INFLATION-ADJUSTED DOLLARS) - Total households - Median household income (dollars) <= 71046.0\ngini = 0.042\nsamples = 1544\nvalue = [1511, 33, 0, 0, 0, 0, 0, 0, 0, 0]"] ;
47 -> 49 ;
50 [label="Estimate; INCOME AND BENEFITS (IN 2017 INFLATION-ADJUSTED DOLLARS) - Total households - Median household income (dollars) <= 33085.0\ngini = 0.016\nsamples = 1480\nvalue = [1468, 12, 0, 0, 0, 0, 0, 0, 0, 0]"] ;
49 -> 50 ;
51 [label="gini = 0.417\nsamples = 27\nvalue = [19, 8, 0, 0, 0, 0, 0, 0, 0, 0]"] ;
50 -> 51 ;
52 [label="Zhvi <= 295400.0\ngini = 0.005\nsamples = 1453\nvalue = [1449, 4, 0, 0, 0, 0, 0, 0, 0, 0]"] ;
50 -> 52 ;
53 [label="gini = 0.211\nsamples = 25\nvalue = [22, 3, 0, 0, 0, 0, 0, 0, 0, 0]"] ;
52 -> 53 ;
54 [label="Estimate; INCOME AND BENEFITS (IN 2017 INFLATION-ADJUSTED DOLLARS) - Total households - Median household income (dollars) <= 35421.5\ngini = 0.001\nsamples = 1428\nvalue = [1427, 1, 0, 0, 0, 0, 0, 0, 0, 0]"] ;
52 -> 54 ;
55 [label="gini = 0.091\nsamples = 21\nvalue = [20, 1, 0, 0, 0, 0, 0, 0, 0, 0]"] ;
54 -> 55 ;
56 [label="gini = 0.0\nsamples = 1407\nvalue = [1407, 0, 0, 0, 0, 0, 0, 0, 0, 0]"] ;
54 -> 56 ;
57 [label="gini = 0.441\nsamples = 64\nvalue = [43, 21, 0, 0, 0, 0, 0, 0, 0, 0]"] ;
49 -> 57 ;
58 [label="Zhvi <= 518950.0\ngini = 0.787\nsamples = 3186\nvalue = [1008, 422, 374, 320, 818, 235, 0, 9, 0, 0]"] ;
46 -> 58 ;
59 [label="Estimate; INCOME AND BENEFITS (IN 2017 INFLATION-ADJUSTED DOLLARS) - Total households - Median household income (dollars) <= 82828.0\ngini = 0.802\nsamples = 2031\nvalue = [129, 422, 374, 295, 590, 212, 0, 9, 0, 0]"] ;
58 -> 59 ;
60 [label="gini = 0.476\nsamples = 584\nvalue = [121, 403, 33, 18, 0, 0, 0, 9, 0, 0]"] ;
59 -> 60 ;
61 [label="Estimate; INCOME AND BENEFITS (IN 2017 INFLATION-ADJUSTED DOLLARS) - Total households - Median household income (dollars) <= 112586.5\ngini = 0.72\nsamples = 1447\nvalue = [8, 19, 341, 277, 590, 212, 0, 0, 0, 0]"] ;
59 -> 61 ;
62 [label="Estimate; INCOME AND BENEFITS (IN 2017 INFLATION-ADJUSTED DOLLARS) - Total households - Median household income (dollars) <= 95989.5\ngini = 0.755\nsamples = 1120\nvalue = [8, 19, 339, 277, 266, 211, 0, 0, 0, 0]"] ;
61 -> 62 ;
63 [label="gini = 0.588\nsamples = 581\nvalue = [8, 19, 24, 270, 255, 5, 0, 0, 0, 0]"] ;
62 -> 63 ;
64 [label="gini = 0.512\nsamples = 539\nvalue = [0, 0, 315, 7, 11, 206, 0, 0, 0, 0]"] ;
62 -> 64 ;
65 [label="gini = 0.018\nsamples = 327\nvalue = [0, 0, 2, 0, 324, 1, 0, 0, 0, 0]"] ;
61 -> 65 ;
66 [label="Estimate; INCOME AND BENEFITS (IN 2017 INFLATION-ADJUSTED DOLLARS) - Total households - Median household income (dollars) <= 116161.0\ngini = 0.381\nsamples = 1155\nvalue = [879, 0, 0, 25, 228, 23, 0, 0, 0, 0]"] ;
58 -> 66 ;
67 [label="gini = 0.065\nsamples = 720\nvalue = [696, 0, 0, 0, 1, 23, 0, 0, 0, 0]"] ;
66 -> 67 ;
68 [label="gini = 0.547\nsamples = 435\nvalue = [183, 0, 0, 25, 227, 0, 0, 0, 0, 0]"] ;
66 -> 68 ;
}
